digraph Tree {
node [shape=box, style="filled, rounded", color="black", fontname="helvetica"] ;
edge [fontname="helvetica"] ;
0 [label=<Number_of_children_ever_born &le; -1.174<br/>gini = 0.646<br/>samples = 1178<br/>value = [499, 262, 417]<br/>class = 1>, fillcolor="#fcf1ea"] ;
1 [label=<Husbands_education &le; 1.5<br/>gini = 0.053<br/>samples = 73<br/>value = [71, 0, 2]<br/>class = 1>, fillcolor="#e6853f"] ;
0 -> 1 [labeldistance=2.5, labelangle=45, headlabel="True"] ;
2 [label=<Wifes_age &le; -1.24<br/>gini = 0.278<br/>samples = 12<br/>value = [10, 0, 2]<br/>class = 1>, fillcolor="#ea9a61"] ;
1 -> 2 ;
3 [label=<gini = 0.48<br/>samples = 5<br/>value = [3, 0, 2]<br/>class = 1>, fillcolor="#f6d5bd"] ;
2 -> 3 ;
4 [label=<gini = 0.0<br/>samples = 7<br/>value = [7, 0, 0]<br/>class = 1>, fillcolor="#e58139"] ;
2 -> 4 ;
5 [label=<gini = 0.0<br/>samples = 61<br/>value = [61, 0, 0]<br/>class = 1>, fillcolor="#e58139"] ;
1 -> 5 ;
6 [label=<Wifes_age &le; 0.561<br/>gini = 0.653<br/>samples = 1105<br/>value = [428, 262, 415]<br/>class = 1>, fillcolor="#fffdfb"] ;
0 -> 6 [labeldistance=2.5, labelangle=-45, headlabel="False"] ;
7 [label=<Wifes_education &le; 1.5<br/>gini = 0.639<br/>samples = 759<br/>value = [244, 168, 347]<br/>class = 3>, fillcolor="#e6d7fa"] ;
6 -> 7 ;
8 [label=<Number_of_children_ever_born &le; -0.349<br/>gini = 0.583<br/>samples = 229<br/>value = [96, 23, 110]<br/>class = 3>, fillcolor="#f2eafc"] ;
7 -> 8 ;
9 [label=<Wifes_now_working%3F &le; 0.5<br/>gini = 0.532<br/>samples = 83<br/>value = [49.0, 6.0, 28.0]<br/>class = 1>, fillcolor="#f5cfb3"] ;
8 -> 9 ;
10 [label=<gini = 0.388<br/>samples = 17<br/>value = [13, 2, 2]<br/>class = 1>, fillcolor="#eca36e"] ;
9 -> 10 ;
11 [label=<gini = 0.544<br/>samples = 66<br/>value = [36, 4, 26]<br/>class = 1>, fillcolor="#f8e0ce"] ;
9 -> 11 ;
12 [label=<Standard-of-living_index &le; 0.5<br/>gini = 0.567<br/>samples = 146<br/>value = [47, 17, 82]<br/>class = 3>, fillcolor="#d2b9f6"] ;
8 -> 12 ;
13 [label=<gini = 0.594<br/>samples = 21<br/>value = [11, 3, 7]<br/>class = 1>, fillcolor="#f8dbc6"] ;
12 -> 13 ;
14 [label=<gini = 0.545<br/>samples = 125<br/>value = [36, 14, 75]<br/>class = 3>, fillcolor="#c8a8f4"] ;
12 -> 14 ;
15 [label=<Wifes_age &le; -0.16<br/>gini = 0.647<br/>samples = 530<br/>value = [148, 145, 237]<br/>class = 3>, fillcolor="#e2d1f9"] ;
7 -> 15 ;
16 [label=<Standard-of-living_index &le; 1.5<br/>gini = 0.629<br/>samples = 348<br/>value = [103, 76, 169]<br/>class = 3>, fillcolor="#ddcaf8"] ;
15 -> 16 ;
17 [label=<gini = 0.583<br/>samples = 89<br/>value = [33.0, 10.0, 46.0]<br/>class = 3>, fillcolor="#e2d1f9"] ;
16 -> 17 ;
18 [label=<gini = 0.636<br/>samples = 259<br/>value = [70, 66, 123]<br/>class = 3>, fillcolor="#dcc7f8"] ;
16 -> 18 ;
19 [label=<Number_of_children_ever_born &le; -0.349<br/>gini = 0.656<br/>samples = 182<br/>value = [45, 69, 68]<br/>class = 2>, fillcolor="#fdfffe"] ;
15 -> 19 ;
20 [label=<gini = 0.633<br/>samples = 48<br/>value = [23, 11, 14]<br/>class = 1>, fillcolor="#f8decb"] ;
19 -> 20 ;
21 [label=<gini = 0.623<br/>samples = 134<br/>value = [22.0, 58.0, 54.0]<br/>class = 2>, fillcolor="#f5fef9"] ;
19 -> 21 ;
22 [label=<Wifes_education &le; 2.5<br/>gini = 0.605<br/>samples = 346<br/>value = [184.0, 94.0, 68.0]<br/>class = 1>, fillcolor="#f6d2b8"] ;
6 -> 22 ;
23 [label=<Husbands_education &le; 1.5<br/>gini = 0.461<br/>samples = 206<br/>value = [145.0, 32.0, 29.0]<br/>class = 1>, fillcolor="#eead7e"] ;
22 -> 23 ;
24 [label=<Standard-of-living_index &le; 2.5<br/>gini = 0.252<br/>samples = 71<br/>value = [61, 5, 5]<br/>class = 1>, fillcolor="#e99457"] ;
23 -> 24 ;
25 [label=<gini = 0.147<br/>samples = 51<br/>value = [47, 3, 1]<br/>class = 1>, fillcolor="#e78c4a"] ;
24 -> 25 ;
26 [label=<gini = 0.46<br/>samples = 20<br/>value = [14, 2, 4]<br/>class = 1>, fillcolor="#efb083"] ;
24 -> 26 ;
27 [label=<Wifes_now_working%3F &le; 0.5<br/>gini = 0.541<br/>samples = 135<br/>value = [84, 27, 24]<br/>class = 1>, fillcolor="#f1bc96"] ;
23 -> 27 ;
28 [label=<gini = 0.612<br/>samples = 21<br/>value = [9, 3, 9]<br/>class = 1>, fillcolor="#ffffff"] ;
27 -> 28 ;
29 [label=<gini = 0.506<br/>samples = 114<br/>value = [75, 24, 15]<br/>class = 1>, fillcolor="#f0b88f"] ;
27 -> 29 ;
30 [label=<Number_of_children_ever_born &le; -0.761<br/>gini = 0.649<br/>samples = 140<br/>value = [39, 62, 39]<br/>class = 2>, fillcolor="#d2f9e2"] ;
22 -> 30 ;
31 [label=<Wifes_age &le; 1.041<br/>gini = 0.219<br/>samples = 16<br/>value = [14, 0, 2]<br/>class = 1>, fillcolor="#e99355"] ;
30 -> 31 ;
32 [label=<gini = 0.5<br/>samples = 4<br/>value = [2, 0, 2]<br/>class = 1>, fillcolor="#ffffff"] ;
31 -> 32 ;
33 [label=<gini = 0.0<br/>samples = 12<br/>value = [12, 0, 0]<br/>class = 1>, fillcolor="#e58139"] ;
31 -> 33 ;
34 [label=<Husbands_occupation_3 &le; 0.5<br/>gini = 0.62<br/>samples = 124<br/>value = [25, 62, 37]<br/>class = 2>, fillcolor="#c6f8db"] ;
30 -> 34 ;
35 [label=<gini = 0.595<br/>samples = 108<br/>value = [20.0, 59.0, 29.0]<br/>class = 2>, fillcolor="#b4f5cf"] ;
34 -> 35 ;
36 [label=<gini = 0.617<br/>samples = 16<br/>value = [5, 3, 8]<br/>class = 3>, fillcolor="#ddc9f8"] ;
34 -> 36 ;
}