digraph Tree {
node [shape=box, style="filled, rounded", color="black", fontname="helvetica"] ;
edge [fontname="helvetica"] ;
0 [label="Number_of_children_ever_born <= 0.5\nentropy = 1.538\nsamples = 1178\nvalue = [499, 262, 417]\nclass = 0", fillcolor="#fcf1ea"] ;
1 [label="Husbands_education <= 2.5\nentropy = 0.181\nsamples = 73\nvalue = [71, 0, 2]\nclass = 0", fillcolor="#e6853f"] ;
0 -> 1 [labeldistance=2.5, labelangle=45, headlabel="True"] ;
2 [label="Wifes_age <= 21.5\nentropy = 0.65\nsamples = 12\nvalue = [10, 0, 2]\nclass = 0", fillcolor="#ea9a61"] ;
1 -> 2 ;
3 [label="entropy = 0.0\nsamples = 2\nvalue = [0, 0, 2]\nclass = 2", fillcolor="#8139e5"] ;
2 -> 3 ;
4 [label="entropy = 0.0\nsamples = 10\nvalue = [10, 0, 0]\nclass = 0", fillcolor="#e58139"] ;
2 -> 4 ;
5 [label="entropy = 0.0\nsamples = 61\nvalue = [61, 0, 0]\nclass = 0", fillcolor="#e58139"] ;
1 -> 5 ;
6 [label="Wifes_education <= 2.5\nentropy = 1.553\nsamples = 1105\nvalue = [428, 262, 415]\nclass = 0", fillcolor="#fffdfb"] ;
0 -> 6 [labeldistance=2.5, labelangle=-45, headlabel="False"] ;
7 [label="Wifes_age <= 37.5\nentropy = 1.337\nsamples = 357\nvalue = [197, 36, 124]\nclass = 0", fillcolor="#f7d8c1"] ;
6 -> 7 ;
8 [label="Number_of_children_ever_born <= 2.5\nentropy = 1.367\nsamples = 229\nvalue = [96, 23, 110]\nclass = 2", fillcolor="#f2eafc"] ;
7 -> 8 ;
9 [label="Standard-of-living_index <= 1.5\nentropy = 1.252\nsamples = 83\nvalue = [49.0, 6.0, 28.0]\nclass = 0", fillcolor="#f5cfb3"] ;
8 -> 9 ;
10 [label="Wifes_education <= 1.5\nentropy = 0.696\nsamples = 16\nvalue = [13, 0, 3]\nclass = 0", fillcolor="#eb9e67"] ;
9 -> 10 ;
11 [label="entropy = 0.918\nsamples = 3\nvalue = [1, 0, 2]\nclass = 2", fillcolor="#c09cf2"] ;
10 -> 11 ;
12 [label="Wifes_age <= 23.5\nentropy = 0.391\nsamples = 13\nvalue = [12, 0, 1]\nclass = 0", fillcolor="#e78c49"] ;
10 -> 12 ;
13 [label="entropy = 0.722\nsamples = 5\nvalue = [4, 0, 1]\nclass = 0", fillcolor="#eca06a"] ;
12 -> 13 ;
14 [label="entropy = 0.0\nsamples = 8\nvalue = [8, 0, 0]\nclass = 0", fillcolor="#e58139"] ;
12 -> 14 ;
15 [label="Wifes_age <= 35.0\nentropy = 1.324\nsamples = 67\nvalue = [36, 6, 25]\nclass = 0", fillcolor="#f8decb"] ;
9 -> 15 ;
16 [label="Wifes_now_working%3F <= 0.5\nentropy = 1.354\nsamples = 62\nvalue = [31, 6, 25]\nclass = 0", fillcolor="#fbebdf"] ;
15 -> 16 ;
17 [label="Wifes_age <= 23.5\nentropy = 1.198\nsamples = 13\nvalue = [9, 2, 2]\nclass = 0", fillcolor="#eeaf81"] ;
16 -> 17 ;
18 [label="entropy = 0.0\nsamples = 2\nvalue = [0, 0, 2]\nclass = 2", fillcolor="#8139e5"] ;
17 -> 18 ;
19 [label="Standard-of-living_index <= 3.5\nentropy = 0.684\nsamples = 11\nvalue = [9, 2, 0]\nclass = 0", fillcolor="#eb9d65"] ;
17 -> 19 ;
20 [label="entropy = 0.971\nsamples = 5\nvalue = [3, 2, 0]\nclass = 0", fillcolor="#f6d5bd"] ;
19 -> 20 ;
21 [label="entropy = 0.0\nsamples = 6\nvalue = [6, 0, 0]\nclass = 0", fillcolor="#e58139"] ;
19 -> 21 ;
22 [label="Wifes_education <= 1.5\nentropy = 1.326\nsamples = 49\nvalue = [22.0, 4.0, 23.0]\nclass = 2", fillcolor="#faf8fe"] ;
16 -> 22 ;
23 [label="entropy = 0.0\nsamples = 4\nvalue = [0, 0, 4]\nclass = 2", fillcolor="#8139e5"] ;
22 -> 23 ;
24 [label="Wifes_age <= 33.5\nentropy = 1.34\nsamples = 45\nvalue = [22, 4, 19]\nclass = 0", fillcolor="#fcf0e8"] ;
22 -> 24 ;
25 [label="Wifes_age <= 31.0\nentropy = 1.289\nsamples = 43\nvalue = [22, 3, 18]\nclass = 0", fillcolor="#fbebdf"] ;
24 -> 25 ;
26 [label="Wifes_age <= 20.5\nentropy = 1.319\nsamples = 38\nvalue = [18, 3, 17]\nclass = 0", fillcolor="#fef9f6"] ;
25 -> 26 ;
27 [label="Husbands_education <= 2.5\nentropy = 0.971\nsamples = 10\nvalue = [6, 0, 4]\nclass = 0", fillcolor="#f6d5bd"] ;
26 -> 27 ;
28 [label="entropy = 0.811\nsamples = 4\nvalue = [1, 0, 3]\nclass = 2", fillcolor="#ab7bee"] ;
27 -> 28 ;
29 [label="entropy = 0.65\nsamples = 6\nvalue = [5, 0, 1]\nclass = 0", fillcolor="#ea9a61"] ;
27 -> 29 ;
30 [label="Husbands_occupation_2 <= 0.5\nentropy = 1.383\nsamples = 28\nvalue = [12, 3, 13]\nclass = 2", fillcolor="#f7f3fd"] ;
26 -> 30 ;
31 [label="Husbands_education <= 3.5\nentropy = 1.449\nsamples = 21\nvalue = [9, 3, 9]\nclass = 0", fillcolor="#ffffff"] ;
30 -> 31 ;
32 [label="Husbands_education <= 2.5\nentropy = 1.435\nsamples = 11\nvalue = [6, 2, 3]\nclass = 0", fillcolor="#f5d0b5"] ;
31 -> 32 ;
33 [label="entropy = 1.459\nsamples = 6\nvalue = [2, 1, 3]\nclass = 2", fillcolor="#e0cef8"] ;
32 -> 33 ;
34 [label="entropy = 0.722\nsamples = 5\nvalue = [4, 1, 0]\nclass = 0", fillcolor="#eca06a"] ;
32 -> 34 ;
35 [label="Number_of_children_ever_born <= 1.5\nentropy = 1.295\nsamples = 10\nvalue = [3, 1, 6]\nclass = 2", fillcolor="#c9aaf4"] ;
31 -> 35 ;
36 [label="entropy = 0.0\nsamples = 3\nvalue = [0, 0, 3]\nclass = 2", fillcolor="#8139e5"] ;
35 -> 36 ;
37 [label="entropy = 1.449\nsamples = 7\nvalue = [3, 1, 3]\nclass = 0", fillcolor="#ffffff"] ;
35 -> 37 ;
38 [label="entropy = 0.985\nsamples = 7\nvalue = [3, 0, 4]\nclass = 2", fillcolor="#e0cef8"] ;
30 -> 38 ;
39 [label="entropy = 0.722\nsamples = 5\nvalue = [4, 0, 1]\nclass = 0", fillcolor="#eca06a"] ;
25 -> 39 ;
40 [label="entropy = 1.0\nsamples = 2\nvalue = [0, 1, 1]\nclass = 1", fillcolor="#ffffff"] ;
24 -> 40 ;
41 [label="entropy = 0.0\nsamples = 5\nvalue = [5, 0, 0]\nclass = 0", fillcolor="#e58139"] ;
15 -> 41 ;
42 [label="Wifes_age <= 29.5\nentropy = 1.355\nsamples = 146\nvalue = [47, 17, 82]\nclass = 2", fillcolor="#d2b9f6"] ;
8 -> 42 ;
43 [label="Wifes_age <= 27.5\nentropy = 1.13\nsamples = 61\nvalue = [22, 2, 37]\nclass = 2", fillcolor="#cfb3f5"] ;
42 -> 43 ;
44 [label="Standard-of-living_index <= 3.5\nentropy = 1.229\nsamples = 42\nvalue = [20, 2, 20]\nclass = 0", fillcolor="#ffffff"] ;
43 -> 44 ;
45 [label="Standard-of-living_index <= 1.5\nentropy = 0.975\nsamples = 27\nvalue = [11, 0, 16]\nclass = 2", fillcolor="#d8c1f7"] ;
44 -> 45 ;
46 [label="entropy = 0.811\nsamples = 8\nvalue = [6, 0, 2]\nclass = 0", fillcolor="#eeab7b"] ;
45 -> 46 ;
47 [label="Wifes_age <= 23.5\nentropy = 0.831\nsamples = 19\nvalue = [5, 0, 14]\nclass = 2", fillcolor="#ae80ee"] ;
45 -> 47 ;
48 [label="entropy = 1.0\nsamples = 4\nvalue = [2, 0, 2]\nclass = 0", fillcolor="#ffffff"] ;
47 -> 48 ;
49 [label="Number_of_children_ever_born <= 3.5\nentropy = 0.722\nsamples = 15\nvalue = [3, 0, 12]\nclass = 2", fillcolor="#a06aec"] ;
47 -> 49 ;
50 [label="Wifes_education <= 1.5\nentropy = 0.845\nsamples = 11\nvalue = [3, 0, 8]\nclass = 2", fillcolor="#b083ef"] ;
49 -> 50 ;
51 [label="entropy = 0.0\nsamples = 3\nvalue = [0, 0, 3]\nclass = 2", fillcolor="#8139e5"] ;
50 -> 51 ;
52 [label="entropy = 0.954\nsamples = 8\nvalue = [3, 0, 5]\nclass = 2", fillcolor="#cdb0f5"] ;
50 -> 52 ;
53 [label="entropy = 0.0\nsamples = 4\nvalue = [0, 0, 4]\nclass = 2", fillcolor="#8139e5"] ;
49 -> 53 ;
54 [label="Husbands_education <= 3.5\nentropy = 1.338\nsamples = 15\nvalue = [9, 2, 4]\nclass = 0", fillcolor="#f3c6a5"] ;
44 -> 54 ;
55 [label="entropy = 0.592\nsamples = 7\nvalue = [6, 1, 0]\nclass = 0", fillcolor="#e9965a"] ;
54 -> 55 ;
56 [label="entropy = 1.406\nsamples = 8\nvalue = [3, 1, 4]\nclass = 2", fillcolor="#e6d7fa"] ;
54 -> 56 ;
57 [label="Husbands_education <= 2.5\nentropy = 0.485\nsamples = 19\nvalue = [2, 0, 17]\nclass = 2", fillcolor="#9050e8"] ;
43 -> 57 ;
58 [label="entropy = 1.0\nsamples = 4\nvalue = [2, 0, 2]\nclass = 0", fillcolor="#ffffff"] ;
57 -> 58 ;
59 [label="entropy = 0.0\nsamples = 15\nvalue = [0, 0, 15]\nclass = 2", fillcolor="#8139e5"] ;
57 -> 59 ;
60 [label="Husbands_education <= 2.5\nentropy = 1.447\nsamples = 85\nvalue = [25.0, 15.0, 45.0]\nclass = 2", fillcolor="#d5bdf6"] ;
42 -> 60 ;
61 [label="Media_exposure <= 0.5\nentropy = 1.536\nsamples = 35\nvalue = [9, 10, 16]\nclass = 2", fillcolor="#e1cff9"] ;
60 -> 61 ;
62 [label="Number_of_children_ever_born <= 4.5\nentropy = 1.516\nsamples = 25\nvalue = [5, 9, 11]\nclass = 2", fillcolor="#efe6fc"] ;
61 -> 62 ;
63 [label="entropy = 1.352\nsamples = 9\nvalue = [3, 1, 5]\nclass = 2", fillcolor="#d5bdf6"] ;
62 -> 63 ;
64 [label="Wifes_age <= 35.5\nentropy = 1.406\nsamples = 16\nvalue = [2, 8, 6]\nclass = 1", fillcolor="#d7fae6"] ;
62 -> 64 ;
65 [label="Standard-of-living_index <= 3.5\nentropy = 0.98\nsamples = 12\nvalue = [0, 7, 5]\nclass = 1", fillcolor="#c6f8db"] ;
64 -> 65 ;
66 [label="entropy = 0.954\nsamples = 8\nvalue = [0, 3, 5]\nclass = 2", fillcolor="#cdb0f5"] ;
65 -> 66 ;
67 [label="entropy = 0.0\nsamples = 4\nvalue = [0, 4, 0]\nclass = 1", fillcolor="#39e581"] ;
65 -> 67 ;
68 [label="entropy = 1.5\nsamples = 4\nvalue = [2, 1, 1]\nclass = 0", fillcolor="#f6d5bd"] ;
64 -> 68 ;
69 [label="Husbands_occupation_4 <= 0.5\nentropy = 1.361\nsamples = 10\nvalue = [4, 1, 5]\nclass = 2", fillcolor="#eadefb"] ;
61 -> 69 ;
70 [label="entropy = 1.0\nsamples = 8\nvalue = [4, 0, 4]\nclass = 0", fillcolor="#ffffff"] ;
69 -> 70 ;
71 [label="entropy = 1.0\nsamples = 2\nvalue = [0, 1, 1]\nclass = 1", fillcolor="#ffffff"] ;
69 -> 71 ;
72 [label="Media_exposure <= 0.5\nentropy = 1.314\nsamples = 50\nvalue = [16.0, 5.0, 29.0]\nclass = 2", fillcolor="#cfb3f5"] ;
60 -> 72 ;
73 [label="Wifes_religion <= 0.5\nentropy = 1.166\nsamples = 42\nvalue = [14, 2, 26]\nclass = 2", fillcolor="#c9aaf4"] ;
72 -> 73 ;
74 [label="entropy = 0.918\nsamples = 3\nvalue = [2, 1, 0]\nclass = 0", fillcolor="#f2c09c"] ;
73 -> 74 ;
75 [label="Wifes_age <= 36.5\nentropy = 1.049\nsamples = 39\nvalue = [12, 1, 26]\nclass = 2", fillcolor="#be98f2"] ;
73 -> 75 ;
76 [label="Wifes_now_working%3F <= 0.5\nentropy = 0.928\nsamples = 35\nvalue = [12, 0, 23]\nclass = 2", fillcolor="#c3a0f3"] ;
75 -> 76 ;
77 [label="Wifes_age <= 34.5\nentropy = 0.994\nsamples = 11\nvalue = [6, 0, 5]\nclass = 0", fillcolor="#fbeade"] ;
76 -> 77 ;
78 [label="entropy = 0.918\nsamples = 9\nvalue = [6, 0, 3]\nclass = 0", fillcolor="#f2c09c"] ;
77 -> 78 ;
79 [label="entropy = 0.0\nsamples = 2\nvalue = [0, 0, 2]\nclass = 2", fillcolor="#8139e5"] ;
77 -> 79 ;
80 [label="Husbands_occupation_2 <= 0.5\nentropy = 0.811\nsamples = 24\nvalue = [6, 0, 18]\nclass = 2", fillcolor="#ab7bee"] ;
76 -> 80 ;
81 [label="Standard-of-living_index <= 2.5\nentropy = 0.523\nsamples = 17\nvalue = [2, 0, 15]\nclass = 2", fillcolor="#9253e8"] ;
80 -> 81 ;
82 [label="entropy = 1.0\nsamples = 4\nvalue = [2, 0, 2]\nclass = 0", fillcolor="#ffffff"] ;
81 -> 82 ;
83 [label="entropy = 0.0\nsamples = 13\nvalue = [0, 0, 13]\nclass = 2", fillcolor="#8139e5"] ;
81 -> 83 ;
84 [label="entropy = 0.985\nsamples = 7\nvalue = [4, 0, 3]\nclass = 0", fillcolor="#f8e0ce"] ;
80 -> 84 ;
85 [label="entropy = 0.811\nsamples = 4\nvalue = [0, 1, 3]\nclass = 2", fillcolor="#ab7bee"] ;
75 -> 85 ;
86 [label="entropy = 1.561\nsamples = 8\nvalue = [2, 3, 3]\nclass = 1", fillcolor="#ffffff"] ;
72 -> 86 ;
87 [label="Wifes_now_working%3F <= 0.5\nentropy = 0.954\nsamples = 128\nvalue = [101, 13, 14]\nclass = 0", fillcolor="#eb9f68"] ;
7 -> 87 ;
88 [label="Standard-of-living_index <= 3.5\nentropy = 0.722\nsamples = 30\nvalue = [24, 0, 6]\nclass = 0", fillcolor="#eca06a"] ;
87 -> 88 ;
89 [label="Number_of_children_ever_born <= 7.5\nentropy = 0.286\nsamples = 20\nvalue = [19, 0, 1]\nclass = 0", fillcolor="#e68843"] ;
88 -> 89 ;
90 [label="entropy = 0.0\nsamples = 16\nvalue = [16, 0, 0]\nclass = 0", fillcolor="#e58139"] ;
89 -> 90 ;
91 [label="entropy = 0.811\nsamples = 4\nvalue = [3, 0, 1]\nclass = 0", fillcolor="#eeab7b"] ;
89 -> 91 ;
92 [label="Husbands_education <= 1.5\nentropy = 1.0\nsamples = 10\nvalue = [5, 0, 5]\nclass = 0", fillcolor="#ffffff"] ;
88 -> 92 ;
93 [label="entropy = 0.0\nsamples = 2\nvalue = [2, 0, 0]\nclass = 0", fillcolor="#e58139"] ;
92 -> 93 ;
94 [label="entropy = 0.954\nsamples = 8\nvalue = [3, 0, 5]\nclass = 2", fillcolor="#cdb0f5"] ;
92 -> 94 ;
95 [label="Media_exposure <= 0.5\nentropy = 0.955\nsamples = 98\nvalue = [77.0, 13.0, 8.0]\nclass = 0", fillcolor="#eba06a"] ;
87 -> 95 ;
96 [label="Wifes_age <= 46.5\nentropy = 1.15\nsamples = 69\nvalue = [49, 12, 8]\nclass = 0", fillcolor="#eead7e"] ;
95 -> 96 ;
97 [label="Number_of_children_ever_born <= 6.5\nentropy = 1.34\nsamples = 47\nvalue = [29, 10, 8]\nclass = 0", fillcolor="#f2be99"] ;
96 -> 97 ;
98 [label="Wifes_age <= 39.5\nentropy = 1.448\nsamples = 26\nvalue = [14, 5, 7]\nclass = 0", fillcolor="#f5d1b6"] ;
97 -> 98 ;
99 [label="entropy = 0.65\nsamples = 6\nvalue = [5, 0, 1]\nclass = 0", fillcolor="#ea9a61"] ;
98 -> 99 ;
100 [label="Wifes_age <= 40.5\nentropy = 1.539\nsamples = 20\nvalue = [9, 5, 6]\nclass = 0", fillcolor="#f9e4d5"] ;
98 -> 100 ;
101 [label="entropy = 0.918\nsamples = 3\nvalue = [0, 1, 2]\nclass = 2", fillcolor="#c09cf2"] ;
100 -> 101 ;
102 [label="Number_of_children_ever_born <= 5.5\nentropy = 1.468\nsamples = 17\nvalue = [9, 4, 4]\nclass = 0", fillcolor="#f5cfb3"] ;
100 -> 102 ;
103 [label="Wifes_age <= 44.5\nentropy = 1.379\nsamples = 14\nvalue = [8, 4, 2]\nclass = 0", fillcolor="#f5cdb0"] ;
102 -> 103 ;
104 [label="Wifes_age <= 41.5\nentropy = 0.918\nsamples = 12\nvalue = [8, 4, 0]\nclass = 0", fillcolor="#f2c09c"] ;
103 -> 104 ;
105 [label="entropy = 0.0\nsamples = 3\nvalue = [3, 0, 0]\nclass = 0", fillcolor="#e58139"] ;
104 -> 105 ;
106 [label="entropy = 0.991\nsamples = 9\nvalue = [5, 4, 0]\nclass = 0", fillcolor="#fae6d7"] ;
104 -> 106 ;
107 [label="entropy = 0.0\nsamples = 2\nvalue = [0, 0, 2]\nclass = 2", fillcolor="#8139e5"] ;
103 -> 107 ;
108 [label="entropy = 0.918\nsamples = 3\nvalue = [1, 0, 2]\nclass = 2", fillcolor="#c09cf2"] ;
102 -> 108 ;
109 [label="Wifes_education <= 1.5\nentropy = 1.049\nsamples = 21\nvalue = [15, 5, 1]\nclass = 0", fillcolor="#efb083"] ;
97 -> 109 ;
110 [label="entropy = 0.544\nsamples = 8\nvalue = [7, 0, 1]\nclass = 0", fillcolor="#e99355"] ;
109 -> 110 ;
111 [label="Wifes_age <= 41.0\nentropy = 0.961\nsamples = 13\nvalue = [8, 5, 0]\nclass = 0", fillcolor="#f5d0b5"] ;
109 -> 111 ;
112 [label="entropy = 0.65\nsamples = 6\nvalue = [5, 1, 0]\nclass = 0", fillcolor="#ea9a61"] ;
111 -> 112 ;
113 [label="entropy = 0.985\nsamples = 7\nvalue = [3, 4, 0]\nclass = 1", fillcolor="#cef8e0"] ;
111 -> 113 ;
114 [label="Number_of_children_ever_born <= 6.5\nentropy = 0.439\nsamples = 22\nvalue = [20, 2, 0]\nclass = 0", fillcolor="#e88e4d"] ;
96 -> 114 ;
115 [label="entropy = 0.0\nsamples = 13\nvalue = [13, 0, 0]\nclass = 0", fillcolor="#e58139"] ;
114 -> 115 ;
116 [label="entropy = 0.764\nsamples = 9\nvalue = [7, 2, 0]\nclass = 0", fillcolor="#eca572"] ;
114 -> 116 ;
117 [label="Standard-of-living_index <= 3.5\nentropy = 0.216\nsamples = 29\nvalue = [28, 1, 0]\nclass = 0", fillcolor="#e68640"] ;
95 -> 117 ;
118 [label="entropy = 0.0\nsamples = 24\nvalue = [24, 0, 0]\nclass = 0", fillcolor="#e58139"] ;
117 -> 118 ;
119 [label="entropy = 0.722\nsamples = 5\nvalue = [4, 1, 0]\nclass = 0", fillcolor="#eca06a"] ;
117 -> 119 ;
120 [label="Wifes_age <= 31.5\nentropy = 1.575\nsamples = 748\nvalue = [231, 226, 291]\nclass = 2", fillcolor="#f0e8fc"] ;
6 -> 120 ;
121 [label="Standard-of-living_index <= 2.5\nentropy = 1.505\nsamples = 348\nvalue = [103, 76, 169]\nclass = 2", fillcolor="#ddcaf8"] ;
120 -> 121 ;
122 [label="Husbands_education <= 3.5\nentropy = 1.377\nsamples = 89\nvalue = [33.0, 10.0, 46.0]\nclass = 2", fillcolor="#e2d1f9"] ;
121 -> 122 ;
123 [label="Wifes_age <= 27.5\nentropy = 1.241\nsamples = 44\nvalue = [12, 4, 28]\nclass = 2", fillcolor="#c09cf2"] ;
122 -> 123 ;
124 [label="Husbands_occupation_3 <= 0.5\nentropy = 1.234\nsamples = 33\nvalue = [12, 2, 19]\nclass = 2", fillcolor="#d5bdf6"] ;
123 -> 124 ;
125 [label="Number_of_children_ever_born <= 2.5\nentropy = 0.696\nsamples = 16\nvalue = [3, 0, 13]\nclass = 2", fillcolor="#9e67eb"] ;
124 -> 125 ;
126 [label="Wifes_age <= 20.5\nentropy = 0.811\nsamples = 12\nvalue = [3, 0, 9]\nclass = 2", fillcolor="#ab7bee"] ;
125 -> 126 ;
127 [label="entropy = 0.0\nsamples = 2\nvalue = [0, 0, 2]\nclass = 2", fillcolor="#8139e5"] ;
126 -> 127 ;
128 [label="Standard-of-living_index <= 1.5\nentropy = 0.881\nsamples = 10\nvalue = [3, 0, 7]\nclass = 2", fillcolor="#b78ef0"] ;
126 -> 128 ;
129 [label="entropy = 0.0\nsamples = 2\nvalue = [0, 0, 2]\nclass = 2", fillcolor="#8139e5"] ;
128 -> 129 ;
130 [label="entropy = 0.954\nsamples = 8\nvalue = [3, 0, 5]\nclass = 2", fillcolor="#cdb0f5"] ;
128 -> 130 ;
131 [label="entropy = 0.0\nsamples = 4\nvalue = [0, 0, 4]\nclass = 2", fillcolor="#8139e5"] ;
125 -> 131 ;
132 [label="Wifes_age <= 24.5\nentropy = 1.379\nsamples = 17\nvalue = [9, 2, 6]\nclass = 0", fillcolor="#f8ddc9"] ;
124 -> 132 ;
133 [label="Wifes_age <= 20.0\nentropy = 0.971\nsamples = 10\nvalue = [4, 0, 6]\nclass = 2", fillcolor="#d5bdf6"] ;
132 -> 133 ;
134 [label="entropy = 0.0\nsamples = 2\nvalue = [2, 0, 0]\nclass = 0", fillcolor="#e58139"] ;
133 -> 134 ;
135 [label="entropy = 0.811\nsamples = 8\nvalue = [2, 0, 6]\nclass = 2", fillcolor="#ab7bee"] ;
133 -> 135 ;
136 [label="entropy = 0.863\nsamples = 7\nvalue = [5, 2, 0]\nclass = 0", fillcolor="#efb388"] ;
132 -> 136 ;
137 [label="Wifes_age <= 29.5\nentropy = 0.684\nsamples = 11\nvalue = [0, 2, 9]\nclass = 2", fillcolor="#9d65eb"] ;
123 -> 137 ;
138 [label="entropy = 0.971\nsamples = 5\nvalue = [0, 2, 3]\nclass = 2", fillcolor="#d5bdf6"] ;
137 -> 138 ;
139 [label="entropy = 0.0\nsamples = 6\nvalue = [0, 0, 6]\nclass = 2", fillcolor="#8139e5"] ;
137 -> 139 ;
140 [label="Wifes_age <= 22.5\nentropy = 1.429\nsamples = 45\nvalue = [21, 6, 18]\nclass = 0", fillcolor="#fcf1e9"] ;
122 -> 140 ;
141 [label="Wifes_age <= 20.5\nentropy = 1.435\nsamples = 11\nvalue = [2, 3, 6]\nclass = 2", fillcolor="#d0b5f5"] ;
140 -> 141 ;
142 [label="entropy = 1.522\nsamples = 5\nvalue = [2, 1, 2]\nclass = 0", fillcolor="#ffffff"] ;
141 -> 142 ;
143 [label="entropy = 0.918\nsamples = 6\nvalue = [0, 2, 4]\nclass = 2", fillcolor="#c09cf2"] ;
141 -> 143 ;
144 [label="Number_of_children_ever_born <= 2.5\nentropy = 1.308\nsamples = 34\nvalue = [19, 3, 12]\nclass = 0", fillcolor="#f7d7c0"] ;
140 -> 144 ;
145 [label="Standard-of-living_index <= 1.5\nentropy = 0.9\nsamples = 19\nvalue = [13, 0, 6]\nclass = 0", fillcolor="#f1bb94"] ;
144 -> 145 ;
146 [label="entropy = 0.0\nsamples = 4\nvalue = [4, 0, 0]\nclass = 0", fillcolor="#e58139"] ;
145 -> 146 ;
147 [label="Wifes_age <= 30.5\nentropy = 0.971\nsamples = 15\nvalue = [9, 0, 6]\nclass = 0", fillcolor="#f6d5bd"] ;
145 -> 147 ;
148 [label="Wifes_age <= 27.5\nentropy = 1.0\nsamples = 12\nvalue = [6, 0, 6]\nclass = 0", fillcolor="#ffffff"] ;
147 -> 148 ;
149 [label="entropy = 0.811\nsamples = 8\nvalue = [6, 0, 2]\nclass = 0", fillcolor="#eeab7b"] ;
148 -> 149 ;
150 [label="entropy = 0.0\nsamples = 4\nvalue = [0, 0, 4]\nclass = 2", fillcolor="#8139e5"] ;
148 -> 150 ;
151 [label="entropy = 0.0\nsamples = 3\nvalue = [3, 0, 0]\nclass = 0", fillcolor="#e58139"] ;
147 -> 151 ;
152 [label="Wifes_age <= 28.5\nentropy = 1.522\nsamples = 15\nvalue = [6, 3, 6]\nclass = 0", fillcolor="#ffffff"] ;
144 -> 152 ;
153 [label="entropy = 1.352\nsamples = 9\nvalue = [5, 1, 3]\nclass = 0", fillcolor="#f6d5bd"] ;
152 -> 153 ;
154 [label="entropy = 1.459\nsamples = 6\nvalue = [1, 2, 3]\nclass = 2", fillcolor="#e0cef8"] ;
152 -> 154 ;
155 [label="Husbands_education <= 1.5\nentropy = 1.523\nsamples = 259\nvalue = [70, 66, 123]\nclass = 2", fillcolor="#dcc7f8"] ;
121 -> 155 ;
156 [label="entropy = 0.0\nsamples = 3\nvalue = [0, 3, 0]\nclass = 1", fillcolor="#39e581"] ;
155 -> 156 ;
157 [label="Number_of_children_ever_born <= 3.5\nentropy = 1.517\nsamples = 256\nvalue = [70, 63, 123]\nclass = 2", fillcolor="#dbc7f8"] ;
155 -> 157 ;
158 [label="Husbands_occupation_4 <= 0.5\nentropy = 1.538\nsamples = 221\nvalue = [60.0, 60.0, 101.0]\nclass = 2", fillcolor="#dfcdf8"] ;
157 -> 158 ;
159 [label="Husbands_occupation_2 <= 0.5\nentropy = 1.534\nsamples = 219\nvalue = [60, 58, 101]\nclass = 2", fillcolor="#dfccf8"] ;
158 -> 159 ;
160 [label="Husbands_occupation_3 <= 0.5\nentropy = 1.558\nsamples = 162\nvalue = [45, 48, 69]\nclass = 2", fillcolor="#e8dbfa"] ;
159 -> 160 ;
161 [label="Wifes_age <= 20.5\nentropy = 1.572\nsamples = 84\nvalue = [23.0, 32.0, 29.0]\nclass = 1", fillcolor="#f4fef8"] ;
160 -> 161 ;
162 [label="entropy = 0.971\nsamples = 5\nvalue = [2, 0, 3]\nclass = 2", fillcolor="#d5bdf6"] ;
161 -> 162 ;
163 [label="Wifes_age <= 21.5\nentropy = 1.564\nsamples = 79\nvalue = [21.0, 32.0, 26.0]\nclass = 1", fillcolor="#e9fcf1"] ;
161 -> 163 ;
164 [label="entropy = 0.722\nsamples = 5\nvalue = [1, 4, 0]\nclass = 1", fillcolor="#6aeca0"] ;
163 -> 164 ;
165 [label="Wifes_age <= 30.5\nentropy = 1.571\nsamples = 74\nvalue = [20, 28, 26]\nclass = 1", fillcolor="#f7fefa"] ;
163 -> 165 ;
166 [label="Wifes_age <= 25.5\nentropy = 1.579\nsamples = 67\nvalue = [20, 25, 22]\nclass = 1", fillcolor="#f2fdf7"] ;
165 -> 166 ;
167 [label="Standard-of-living_index <= 3.5\nentropy = 1.473\nsamples = 22\nvalue = [4, 7, 11]\nclass = 2", fillcolor="#ddcaf8"] ;
166 -> 167 ;
168 [label="entropy = 1.53\nsamples = 9\nvalue = [3, 4, 2]\nclass = 1", fillcolor="#defbea"] ;
167 -> 168 ;
169 [label="Wifes_age <= 24.5\nentropy = 1.14\nsamples = 13\nvalue = [1, 3, 9]\nclass = 2", fillcolor="#b388ef"] ;
167 -> 169 ;
170 [label="entropy = 0.863\nsamples = 7\nvalue = [0, 2, 5]\nclass = 2", fillcolor="#b388ef"] ;
169 -> 170 ;
171 [label="entropy = 1.252\nsamples = 6\nvalue = [1, 1, 4]\nclass = 2", fillcolor="#b388ef"] ;
169 -> 171 ;
172 [label="Number_of_children_ever_born <= 1.5\nentropy = 1.556\nsamples = 45\nvalue = [16, 18, 11]\nclass = 1", fillcolor="#f1fdf6"] ;
166 -> 172 ;
173 [label="Wifes_age <= 26.5\nentropy = 1.493\nsamples = 14\nvalue = [7, 3, 4]\nclass = 0", fillcolor="#f7d9c4"] ;
172 -> 173 ;
174 [label="entropy = 0.65\nsamples = 6\nvalue = [5, 1, 0]\nclass = 0", fillcolor="#ea9a61"] ;
173 -> 174 ;
175 [label="entropy = 1.5\nsamples = 8\nvalue = [2, 2, 4]\nclass = 2", fillcolor="#d5bdf6"] ;
173 -> 175 ;
176 [label="Wifes_religion <= 0.5\nentropy = 1.51\nsamples = 31\nvalue = [9, 15, 7]\nclass = 1", fillcolor="#c9f8dd"] ;
172 -> 176 ;
177 [label="entropy = 1.0\nsamples = 4\nvalue = [2, 2, 0]\nclass = 0", fillcolor="#ffffff"] ;
176 -> 177 ;
178 [label="entropy = 1.518\nsamples = 27\nvalue = [7, 13, 7]\nclass = 1", fillcolor="#c4f7d9"] ;
176 -> 178 ;
179 [label="entropy = 0.985\nsamples = 7\nvalue = [0, 3, 4]\nclass = 2", fillcolor="#e0cef8"] ;
165 -> 179 ;
180 [label="Number_of_children_ever_born <= 2.5\nentropy = 1.478\nsamples = 78\nvalue = [22, 16, 40]\nclass = 2", fillcolor="#d6bff7"] ;
160 -> 180 ;
181 [label="Wifes_age <= 30.5\nentropy = 1.53\nsamples = 61\nvalue = [22, 13, 26]\nclass = 2", fillcolor="#f2ebfc"] ;
180 -> 181 ;
182 [label="Standard-of-living_index <= 3.5\nentropy = 1.518\nsamples = 57\nvalue = [19, 12, 26]\nclass = 2", fillcolor="#e8dbfa"] ;
181 -> 182 ;
183 [label="Wifes_age <= 26.5\nentropy = 1.41\nsamples = 36\nvalue = [12, 5, 19]\nclass = 2", fillcolor="#dac5f7"] ;
182 -> 183 ;
184 [label="Wifes_now_working%3F <= 0.5\nentropy = 1.349\nsamples = 31\nvalue = [12, 3, 16]\nclass = 2", fillcolor="#e4d5fa"] ;
183 -> 184 ;
185 [label="entropy = 0.65\nsamples = 6\nvalue = [5, 0, 1]\nclass = 0", fillcolor="#ea9a61"] ;
184 -> 185 ;
186 [label="Wifes_age <= 20.5\nentropy = 1.323\nsamples = 25\nvalue = [7.0, 3.0, 15.0]\nclass = 2", fillcolor="#c7a7f3"] ;
184 -> 186 ;
187 [label="entropy = 0.811\nsamples = 4\nvalue = [3, 0, 1]\nclass = 0", fillcolor="#eeab7b"] ;
186 -> 187 ;
188 [label="entropy = 1.247\nsamples = 21\nvalue = [4, 3, 14]\nclass = 2", fillcolor="#b58bf0"] ;
186 -> 188 ;
189 [label="entropy = 0.971\nsamples = 5\nvalue = [0, 2, 3]\nclass = 2", fillcolor="#d5bdf6"] ;
183 -> 189 ;
190 [label="Wifes_now_working%3F <= 0.5\nentropy = 1.585\nsamples = 21\nvalue = [7, 7, 7]\nclass = 0", fillcolor="#ffffff"] ;
182 -> 190 ;
191 [label="entropy = 0.811\nsamples = 4\nvalue = [0, 3, 1]\nclass = 1", fillcolor="#7beeab"] ;
190 -> 191 ;
192 [label="Wifes_education <= 3.5\nentropy = 1.549\nsamples = 17\nvalue = [7, 4, 6]\nclass = 0", fillcolor="#fdf4ed"] ;
190 -> 192 ;
193 [label="entropy = 1.379\nsamples = 7\nvalue = [4, 2, 1]\nclass = 0", fillcolor="#f5cdb0"] ;
192 -> 193 ;
194 [label="Number_of_children_ever_born <= 1.5\nentropy = 1.485\nsamples = 10\nvalue = [3, 2, 5]\nclass = 2", fillcolor="#dbc6f8"] ;
192 -> 194 ;
195 [label="entropy = 1.557\nsamples = 7\nvalue = [3, 2, 2]\nclass = 0", fillcolor="#fae6d7"] ;
194 -> 195 ;
196 [label="entropy = 0.0\nsamples = 3\nvalue = [0, 0, 3]\nclass = 2", fillcolor="#8139e5"] ;
194 -> 196 ;
197 [label="entropy = 0.811\nsamples = 4\nvalue = [3, 1, 0]\nclass = 0", fillcolor="#eeab7b"] ;
181 -> 197 ;
198 [label="Wifes_age <= 29.5\nentropy = 0.672\nsamples = 17\nvalue = [0, 3, 14]\nclass = 2", fillcolor="#9c63eb"] ;
180 -> 198 ;
199 [label="Wifes_age <= 28.0\nentropy = 0.779\nsamples = 13\nvalue = [0, 3, 10]\nclass = 2", fillcolor="#a774ed"] ;
198 -> 199 ;
200 [label="Wifes_age <= 24.0\nentropy = 0.684\nsamples = 11\nvalue = [0, 2, 9]\nclass = 2", fillcolor="#9d65eb"] ;
199 -> 200 ;
201 [label="entropy = 0.918\nsamples = 3\nvalue = [0, 1, 2]\nclass = 2", fillcolor="#c09cf2"] ;
200 -> 201 ;
202 [label="entropy = 0.544\nsamples = 8\nvalue = [0, 1, 7]\nclass = 2", fillcolor="#9355e9"] ;
200 -> 202 ;
203 [label="entropy = 1.0\nsamples = 2\nvalue = [0, 1, 1]\nclass = 1", fillcolor="#ffffff"] ;
199 -> 203 ;
204 [label="entropy = 0.0\nsamples = 4\nvalue = [0, 0, 4]\nclass = 2", fillcolor="#8139e5"] ;
198 -> 204 ;
205 [label="Wifes_age <= 30.5\nentropy = 1.415\nsamples = 57\nvalue = [15, 10, 32]\nclass = 2", fillcolor="#ccaff4"] ;
159 -> 205 ;
206 [label="Wifes_age <= 20.5\nentropy = 1.359\nsamples = 53\nvalue = [12, 9, 32]\nclass = 2", fillcolor="#c29ef2"] ;
205 -> 206 ;
207 [label="Husbands_education <= 3.5\nentropy = 1.295\nsamples = 10\nvalue = [1, 3, 6]\nclass = 2", fillcolor="#c9aaf4"] ;
206 -> 207 ;
208 [label="entropy = 0.811\nsamples = 4\nvalue = [1, 0, 3]\nclass = 2", fillcolor="#ab7bee"] ;
207 -> 208 ;
209 [label="entropy = 1.0\nsamples = 6\nvalue = [0, 3, 3]\nclass = 1", fillcolor="#ffffff"] ;
207 -> 209 ;
210 [label="Wifes_age <= 23.5\nentropy = 1.338\nsamples = 43\nvalue = [11, 6, 26]\nclass = 2", fillcolor="#c4a2f3"] ;
206 -> 210 ;
211 [label="Wifes_age <= 22.5\nentropy = 0.961\nsamples = 13\nvalue = [5, 0, 8]\nclass = 2", fillcolor="#d0b5f5"] ;
210 -> 211 ;
212 [label="entropy = 0.764\nsamples = 9\nvalue = [2, 0, 7]\nclass = 2", fillcolor="#a572ec"] ;
211 -> 212 ;
213 [label="entropy = 0.811\nsamples = 4\nvalue = [3, 0, 1]\nclass = 0", fillcolor="#eeab7b"] ;
211 -> 213 ;
214 [label="Wifes_age <= 28.5\nentropy = 1.371\nsamples = 30\nvalue = [6, 6, 18]\nclass = 2", fillcolor="#c09cf2"] ;
210 -> 214 ;
215 [label="Wifes_religion <= 0.5\nentropy = 1.216\nsamples = 22\nvalue = [3.0, 4.0, 15.0]\nclass = 2", fillcolor="#b286ef"] ;
214 -> 215 ;
216 [label="entropy = 1.53\nsamples = 9\nvalue = [2, 3, 4]\nclass = 2", fillcolor="#eadefb"] ;
215 -> 216 ;
217 [label="Number_of_children_ever_born <= 2.5\nentropy = 0.773\nsamples = 13\nvalue = [1, 1, 11]\nclass = 2", fillcolor="#965ae9"] ;
215 -> 217 ;
218 [label="entropy = 0.0\nsamples = 9\nvalue = [0, 0, 9]\nclass = 2", fillcolor="#8139e5"] ;
217 -> 218 ;
219 [label="entropy = 1.5\nsamples = 4\nvalue = [1, 1, 2]\nclass = 2", fillcolor="#d5bdf6"] ;
217 -> 219 ;
220 [label="entropy = 1.561\nsamples = 8\nvalue = [3, 2, 3]\nclass = 0", fillcolor="#ffffff"] ;
214 -> 220 ;
221 [label="entropy = 0.811\nsamples = 4\nvalue = [3, 1, 0]\nclass = 0", fillcolor="#eeab7b"] ;
205 -> 221 ;
222 [label="entropy = 0.0\nsamples = 2\nvalue = [0, 2, 0]\nclass = 1", fillcolor="#39e581"] ;
158 -> 222 ;
223 [label="Husbands_occupation_3 <= 0.5\nentropy = 1.241\nsamples = 35\nvalue = [10, 3, 22]\nclass = 2", fillcolor="#c3a0f3"] ;
157 -> 223 ;
224 [label="Wifes_age <= 30.5\nentropy = 1.481\nsamples = 18\nvalue = [7, 3, 8]\nclass = 2", fillcolor="#f4edfd"] ;
223 -> 224 ;
225 [label="Wifes_age <= 29.5\nentropy = 1.505\nsamples = 16\nvalue = [7, 3, 6]\nclass = 0", fillcolor="#fcf2eb"] ;
224 -> 225 ;
226 [label="Number_of_children_ever_born <= 4.5\nentropy = 1.46\nsamples = 13\nvalue = [5, 2, 6]\nclass = 2", fillcolor="#efe6fc"] ;
225 -> 226 ;
227 [label="Husbands_education <= 3.5\nentropy = 1.361\nsamples = 10\nvalue = [5, 1, 4]\nclass = 0", fillcolor="#fbeade"] ;
226 -> 227 ;
228 [label="entropy = 0.0\nsamples = 2\nvalue = [2, 0, 0]\nclass = 0", fillcolor="#e58139"] ;
227 -> 228 ;
229 [label="entropy = 1.406\nsamples = 8\nvalue = [3, 1, 4]\nclass = 2", fillcolor="#e6d7fa"] ;
227 -> 229 ;
230 [label="entropy = 0.918\nsamples = 3\nvalue = [0, 1, 2]\nclass = 2", fillcolor="#c09cf2"] ;
226 -> 230 ;
231 [label="entropy = 0.918\nsamples = 3\nvalue = [2, 1, 0]\nclass = 0", fillcolor="#f2c09c"] ;
225 -> 231 ;
232 [label="entropy = 0.0\nsamples = 2\nvalue = [0, 0, 2]\nclass = 2", fillcolor="#8139e5"] ;
224 -> 232 ;
233 [label="Number_of_children_ever_born <= 4.5\nentropy = 0.672\nsamples = 17\nvalue = [3, 0, 14]\nclass = 2", fillcolor="#9c63eb"] ;
223 -> 233 ;
234 [label="entropy = 0.0\nsamples = 11\nvalue = [0, 0, 11]\nclass = 2", fillcolor="#8139e5"] ;
233 -> 234 ;
235 [label="entropy = 1.0\nsamples = 6\nvalue = [3, 0, 3]\nclass = 0", fillcolor="#ffffff"] ;
233 -> 235 ;
236 [label="Number_of_children_ever_born <= 1.5\nentropy = 1.579\nsamples = 400\nvalue = [128, 150, 122]\nclass = 1", fillcolor="#effdf5"] ;
120 -> 236 ;
237 [label="Wifes_age <= 41.5\nentropy = 0.555\nsamples = 31\nvalue = [27, 0, 4]\nclass = 0", fillcolor="#e99456"] ;
236 -> 237 ;
238 [label="Wifes_education <= 3.5\nentropy = 0.787\nsamples = 17\nvalue = [13, 0, 4]\nclass = 0", fillcolor="#eda876"] ;
237 -> 238 ;
239 [label="entropy = 0.0\nsamples = 6\nvalue = [6, 0, 0]\nclass = 0", fillcolor="#e58139"] ;
238 -> 239 ;
240 [label="Wifes_age <= 38.5\nentropy = 0.946\nsamples = 11\nvalue = [7, 0, 4]\nclass = 0", fillcolor="#f4c9aa"] ;
238 -> 240 ;
241 [label="entropy = 0.764\nsamples = 9\nvalue = [7, 0, 2]\nclass = 0", fillcolor="#eca572"] ;
240 -> 241 ;
242 [label="entropy = 0.0\nsamples = 2\nvalue = [0, 0, 2]\nclass = 2", fillcolor="#8139e5"] ;
240 -> 242 ;
243 [label="entropy = 0.0\nsamples = 14\nvalue = [14, 0, 0]\nclass = 0", fillcolor="#e58139"] ;
237 -> 243 ;
244 [label="Wifes_education <= 3.5\nentropy = 1.566\nsamples = 369\nvalue = [101, 150, 118]\nclass = 1", fillcolor="#e6fcef"] ;
236 -> 244 ;
245 [label="Wifes_age <= 33.5\nentropy = 1.571\nsamples = 128\nvalue = [51, 40, 37]\nclass = 0", fillcolor="#fcefe6"] ;
244 -> 245 ;
246 [label="Number_of_children_ever_born <= 2.5\nentropy = 0.998\nsamples = 19\nvalue = [0, 9, 10]\nclass = 2", fillcolor="#f2ebfc"] ;
245 -> 246 ;
247 [label="entropy = 0.0\nsamples = 2\nvalue = [0, 2, 0]\nclass = 1", fillcolor="#39e581"] ;
246 -> 247 ;
248 [label="Wifes_religion <= 0.5\nentropy = 0.977\nsamples = 17\nvalue = [0, 7, 10]\nclass = 2", fillcolor="#d9c4f7"] ;
246 -> 248 ;
249 [label="entropy = 0.811\nsamples = 4\nvalue = [0, 3, 1]\nclass = 1", fillcolor="#7beeab"] ;
248 -> 249 ;
250 [label="Husbands_occupation_2 <= 0.5\nentropy = 0.89\nsamples = 13\nvalue = [0, 4, 9]\nclass = 2", fillcolor="#b991f1"] ;
248 -> 250 ;
251 [label="entropy = 0.991\nsamples = 9\nvalue = [0, 4, 5]\nclass = 2", fillcolor="#e6d7fa"] ;
250 -> 251 ;
252 [label="entropy = 0.0\nsamples = 4\nvalue = [0, 0, 4]\nclass = 2", fillcolor="#8139e5"] ;
250 -> 252 ;
253 [label="Husbands_occupation_2 <= 0.5\nentropy = 1.527\nsamples = 109\nvalue = [51, 31, 27]\nclass = 0", fillcolor="#f8dfcc"] ;
245 -> 253 ;
254 [label="Wifes_now_working%3F <= 0.5\nentropy = 1.564\nsamples = 75\nvalue = [31.0, 21.0, 23.0]\nclass = 0", fillcolor="#fbece1"] ;
253 -> 254 ;
255 [label="Standard-of-living_index <= 3.5\nentropy = 1.239\nsamples = 13\nvalue = [1, 4, 8]\nclass = 2", fillcolor="#c7a7f3"] ;
254 -> 255 ;
256 [label="entropy = 1.371\nsamples = 5\nvalue = [1, 3, 1]\nclass = 1", fillcolor="#9cf2c0"] ;
255 -> 256 ;
257 [label="entropy = 0.544\nsamples = 8\nvalue = [0, 1, 7]\nclass = 2", fillcolor="#9355e9"] ;
255 -> 257 ;
258 [label="Wifes_age <= 40.5\nentropy = 1.514\nsamples = 62\nvalue = [30, 17, 15]\nclass = 0", fillcolor="#f7dbc6"] ;
254 -> 258 ;
259 [label="Number_of_children_ever_born <= 6.5\nentropy = 1.561\nsamples = 32\nvalue = [12, 8, 12]\nclass = 0", fillcolor="#ffffff"] ;
258 -> 259 ;
260 [label="Husbands_education <= 3.5\nentropy = 1.577\nsamples = 26\nvalue = [8, 8, 10]\nclass = 2", fillcolor="#f1e9fc"] ;
259 -> 260 ;
261 [label="Wifes_age <= 36.5\nentropy = 1.522\nsamples = 10\nvalue = [4, 4, 2]\nclass = 0", fillcolor="#ffffff"] ;
260 -> 261 ;
262 [label="entropy = 0.722\nsamples = 5\nvalue = [0, 4, 1]\nclass = 1", fillcolor="#6aeca0"] ;
261 -> 262 ;
263 [label="entropy = 0.722\nsamples = 5\nvalue = [4, 0, 1]\nclass = 0", fillcolor="#eca06a"] ;
261 -> 263 ;
264 [label="Wifes_age <= 34.5\nentropy = 1.5\nsamples = 16\nvalue = [4, 4, 8]\nclass = 2", fillcolor="#d5bdf6"] ;
260 -> 264 ;
265 [label="entropy = 0.918\nsamples = 3\nvalue = [2, 1, 0]\nclass = 0", fillcolor="#f2c09c"] ;
264 -> 265 ;
266 [label="Wifes_age <= 38.5\nentropy = 1.335\nsamples = 13\nvalue = [2, 3, 8]\nclass = 2", fillcolor="#c09cf2"] ;
264 -> 266 ;
267 [label="entropy = 0.65\nsamples = 6\nvalue = [0, 1, 5]\nclass = 2", fillcolor="#9a61ea"] ;
266 -> 267 ;
268 [label="entropy = 1.557\nsamples = 7\nvalue = [2, 2, 3]\nclass = 2", fillcolor="#e6d7fa"] ;
266 -> 268 ;
269 [label="entropy = 0.918\nsamples = 6\nvalue = [4, 0, 2]\nclass = 0", fillcolor="#f2c09c"] ;
259 -> 269 ;
270 [label="Number_of_children_ever_born <= 3.5\nentropy = 1.295\nsamples = 30\nvalue = [18, 9, 3]\nclass = 0", fillcolor="#f4c9aa"] ;
258 -> 270 ;
271 [label="entropy = 0.65\nsamples = 6\nvalue = [5, 0, 1]\nclass = 0", fillcolor="#ea9a61"] ;
270 -> 271 ;
272 [label="Number_of_children_ever_born <= 7.5\nentropy = 1.309\nsamples = 24\nvalue = [13, 9, 2]\nclass = 0", fillcolor="#f8ddca"] ;
270 -> 272 ;
273 [label="Wifes_age <= 45.5\nentropy = 0.996\nsamples = 13\nvalue = [6, 7, 0]\nclass = 1", fillcolor="#e3fbed"] ;
272 -> 273 ;
274 [label="entropy = 0.811\nsamples = 8\nvalue = [2, 6, 0]\nclass = 1", fillcolor="#7beeab"] ;
273 -> 274 ;
275 [label="entropy = 0.722\nsamples = 5\nvalue = [4, 1, 0]\nclass = 0", fillcolor="#eca06a"] ;
273 -> 275 ;
276 [label="Wifes_age <= 42.5\nentropy = 1.309\nsamples = 11\nvalue = [7, 2, 2]\nclass = 0", fillcolor="#f1b991"] ;
272 -> 276 ;
277 [label="entropy = 0.0\nsamples = 3\nvalue = [3, 0, 0]\nclass = 0", fillcolor="#e58139"] ;
276 -> 277 ;
278 [label="entropy = 1.5\nsamples = 8\nvalue = [4, 2, 2]\nclass = 0", fillcolor="#f6d5bd"] ;
276 -> 278 ;
279 [label="Standard-of-living_index <= 2.5\nentropy = 1.333\nsamples = 34\nvalue = [20, 10, 4]\nclass = 0", fillcolor="#f4caac"] ;
253 -> 279 ;
280 [label="entropy = 0.503\nsamples = 9\nvalue = [8, 1, 0]\nclass = 0", fillcolor="#e89152"] ;
279 -> 280 ;
281 [label="Number_of_children_ever_born <= 2.5\nentropy = 1.462\nsamples = 25\nvalue = [12, 9, 4]\nclass = 0", fillcolor="#fae7da"] ;
279 -> 281 ;
282 [label="entropy = 0.722\nsamples = 5\nvalue = [4, 1, 0]\nclass = 0", fillcolor="#eca06a"] ;
281 -> 282 ;
283 [label="Husbands_education <= 2.5\nentropy = 1.522\nsamples = 20\nvalue = [8, 8, 4]\nclass = 0", fillcolor="#ffffff"] ;
281 -> 283 ;
284 [label="entropy = 0.0\nsamples = 2\nvalue = [2, 0, 0]\nclass = 0", fillcolor="#e58139"] ;
283 -> 284 ;
285 [label="Wifes_age <= 47.5\nentropy = 1.53\nsamples = 18\nvalue = [6, 8, 4]\nclass = 1", fillcolor="#defbea"] ;
283 -> 285 ;
286 [label="Standard-of-living_index <= 3.5\nentropy = 1.457\nsamples = 15\nvalue = [4, 8, 3]\nclass = 1", fillcolor="#b7f6d1"] ;
285 -> 286 ;
287 [label="entropy = 0.0\nsamples = 4\nvalue = [0, 4, 0]\nclass = 1", fillcolor="#39e581"] ;
286 -> 287 ;
288 [label="Wifes_religion <= 0.5\nentropy = 1.573\nsamples = 11\nvalue = [4, 4, 3]\nclass = 0", fillcolor="#ffffff"] ;
286 -> 288 ;
289 [label="entropy = 0.971\nsamples = 5\nvalue = [0, 3, 2]\nclass = 1", fillcolor="#bdf6d5"] ;
288 -> 289 ;
290 [label="entropy = 1.252\nsamples = 6\nvalue = [4, 1, 1]\nclass = 0", fillcolor="#efb388"] ;
288 -> 290 ;
291 [label="entropy = 0.918\nsamples = 3\nvalue = [2, 0, 1]\nclass = 0", fillcolor="#f2c09c"] ;
285 -> 291 ;
292 [label="Number_of_children_ever_born <= 2.5\nentropy = 1.516\nsamples = 241\nvalue = [50, 110, 81]\nclass = 1", fillcolor="#dbfae8"] ;
244 -> 292 ;
293 [label="Wifes_now_working%3F <= 0.5\nentropy = 1.556\nsamples = 45\nvalue = [16, 11, 18]\nclass = 2", fillcolor="#f6f1fd"] ;
292 -> 293 ;
294 [label="Wifes_age <= 33.5\nentropy = 1.51\nsamples = 21\nvalue = [4, 8, 9]\nclass = 2", fillcolor="#f5f0fd"] ;
293 -> 294 ;
295 [label="entropy = 0.991\nsamples = 9\nvalue = [0, 5, 4]\nclass = 1", fillcolor="#d7fae6"] ;
294 -> 295 ;
296 [label="Wifes_religion <= 0.5\nentropy = 1.555\nsamples = 12\nvalue = [4, 3, 5]\nclass = 2", fillcolor="#efe6fc"] ;
294 -> 296 ;
297 [label="entropy = 0.918\nsamples = 3\nvalue = [0, 1, 2]\nclass = 2", fillcolor="#c09cf2"] ;
296 -> 297 ;
298 [label="entropy = 1.53\nsamples = 9\nvalue = [4, 2, 3]\nclass = 0", fillcolor="#fbeade"] ;
296 -> 298 ;
299 [label="Wifes_age <= 33.5\nentropy = 1.406\nsamples = 24\nvalue = [12, 3, 9]\nclass = 0", fillcolor="#fae6d7"] ;
293 -> 299 ;
300 [label="entropy = 0.0\nsamples = 4\nvalue = [4, 0, 0]\nclass = 0", fillcolor="#e58139"] ;
299 -> 300 ;
301 [label="Wifes_religion <= 0.5\nentropy = 1.458\nsamples = 20\nvalue = [8, 3, 9]\nclass = 2", fillcolor="#f5effd"] ;
299 -> 301 ;
302 [label="entropy = 1.0\nsamples = 8\nvalue = [4, 0, 4]\nclass = 0", fillcolor="#ffffff"] ;
301 -> 302 ;
303 [label="Wifes_age <= 35.5\nentropy = 1.555\nsamples = 12\nvalue = [4, 3, 5]\nclass = 2", fillcolor="#efe6fc"] ;
301 -> 303 ;
304 [label="entropy = 0.811\nsamples = 4\nvalue = [0, 1, 3]\nclass = 2", fillcolor="#ab7bee"] ;
303 -> 304 ;
305 [label="entropy = 1.5\nsamples = 8\nvalue = [4, 2, 2]\nclass = 0", fillcolor="#f6d5bd"] ;
303 -> 305 ;
306 [label="Wifes_age <= 42.5\nentropy = 1.462\nsamples = 196\nvalue = [34.0, 99.0, 63.0]\nclass = 1", fillcolor="#c9f8dd"] ;
292 -> 306 ;
307 [label="Wifes_age <= 35.5\nentropy = 1.375\nsamples = 136\nvalue = [16, 73, 47]\nclass = 1", fillcolor="#c5f7da"] ;
306 -> 307 ;
308 [label="Husbands_occupation_3 <= 0.5\nentropy = 1.536\nsamples = 47\nvalue = [11, 21, 15]\nclass = 1", fillcolor="#dafae7"] ;
307 -> 308 ;
309 [label="Number_of_children_ever_born <= 3.5\nentropy = 1.542\nsamples = 36\nvalue = [8, 14, 14]\nclass = 1", fillcolor="#ffffff"] ;
308 -> 309 ;
310 [label="Husbands_occupation_2 <= 0.5\nentropy = 1.447\nsamples = 17\nvalue = [5, 3, 9]\nclass = 2", fillcolor="#d5bdf6"] ;
309 -> 310 ;
311 [label="Wifes_now_working%3F <= 0.5\nentropy = 1.531\nsamples = 14\nvalue = [5, 3, 6]\nclass = 2", fillcolor="#f1e9fc"] ;
310 -> 311 ;
312 [label="entropy = 0.0\nsamples = 2\nvalue = [0, 0, 2]\nclass = 2", fillcolor="#8139e5"] ;
311 -> 312 ;
313 [label="Wifes_religion <= 0.5\nentropy = 1.555\nsamples = 12\nvalue = [5, 3, 4]\nclass = 0", fillcolor="#fcefe6"] ;
311 -> 313 ;
314 [label="entropy = 0.918\nsamples = 3\nvalue = [2, 0, 1]\nclass = 0", fillcolor="#f2c09c"] ;
313 -> 314 ;
315 [label="entropy = 1.585\nsamples = 9\nvalue = [3, 3, 3]\nclass = 0", fillcolor="#ffffff"] ;
313 -> 315 ;
316 [label="entropy = 0.0\nsamples = 3\nvalue = [0, 0, 3]\nclass = 2", fillcolor="#8139e5"] ;
310 -> 316 ;
317 [label="Husbands_occupation_2 <= 0.5\nentropy = 1.384\nsamples = 19\nvalue = [3, 11, 5]\nclass = 1", fillcolor="#aaf4c9"] ;
309 -> 317 ;
318 [label="Wifes_age <= 32.5\nentropy = 1.483\nsamples = 12\nvalue = [2, 5, 5]\nclass = 1", fillcolor="#ffffff"] ;
317 -> 318 ;
319 [label="entropy = 0.918\nsamples = 3\nvalue = [1, 0, 2]\nclass = 2", fillcolor="#c09cf2"] ;
318 -> 319 ;
320 [label="entropy = 1.352\nsamples = 9\nvalue = [1, 5, 3]\nclass = 1", fillcolor="#bdf6d5"] ;
318 -> 320 ;
321 [label="entropy = 0.592\nsamples = 7\nvalue = [1, 6, 0]\nclass = 1", fillcolor="#5ae996"] ;
317 -> 321 ;
322 [label="Number_of_children_ever_born <= 4.5\nentropy = 1.241\nsamples = 11\nvalue = [3, 7, 1]\nclass = 1", fillcolor="#9cf2c0"] ;
308 -> 322 ;
323 [label="entropy = 0.592\nsamples = 7\nvalue = [1, 6, 0]\nclass = 1", fillcolor="#5ae996"] ;
322 -> 323 ;
324 [label="entropy = 1.5\nsamples = 4\nvalue = [2, 1, 1]\nclass = 0", fillcolor="#f6d5bd"] ;
322 -> 324 ;
325 [label="Wifes_age <= 38.5\nentropy = 1.217\nsamples = 89\nvalue = [5, 52, 32]\nclass = 1", fillcolor="#baf6d3"] ;
307 -> 325 ;
326 [label="Media_exposure <= 0.5\nentropy = 1.129\nsamples = 46\nvalue = [1, 23, 22]\nclass = 1", fillcolor="#f7fefa"] ;
325 -> 326 ;
327 [label="Wifes_age <= 36.5\nentropy = 1.13\nsamples = 44\nvalue = [1, 23, 20]\nclass = 1", fillcolor="#e6fcef"] ;
326 -> 327 ;
328 [label="Number_of_children_ever_born <= 3.5\nentropy = 1.252\nsamples = 18\nvalue = [1, 8, 9]\nclass = 2", fillcolor="#f2ebfc"] ;
327 -> 328 ;
329 [label="Wifes_religion <= 0.5\nentropy = 1.0\nsamples = 12\nvalue = [0, 6, 6]\nclass = 1", fillcolor="#ffffff"] ;
328 -> 329 ;
330 [label="entropy = 0.722\nsamples = 5\nvalue = [0, 1, 4]\nclass = 2", fillcolor="#a06aec"] ;
329 -> 330 ;
331 [label="entropy = 0.863\nsamples = 7\nvalue = [0, 5, 2]\nclass = 1", fillcolor="#88efb3"] ;
329 -> 331 ;
332 [label="entropy = 1.459\nsamples = 6\nvalue = [1, 2, 3]\nclass = 2", fillcolor="#e0cef8"] ;
328 -> 332 ;
333 [label="Husbands_occupation_2 <= 0.5\nentropy = 0.983\nsamples = 26\nvalue = [0.0, 15.0, 11.0]\nclass = 1", fillcolor="#caf8dd"] ;
327 -> 333 ;
334 [label="Wifes_now_working%3F <= 0.5\nentropy = 0.937\nsamples = 17\nvalue = [0, 11, 6]\nclass = 1", fillcolor="#a5f3c6"] ;
333 -> 334 ;
335 [label="entropy = 0.0\nsamples = 2\nvalue = [0, 0, 2]\nclass = 2", fillcolor="#8139e5"] ;
334 -> 335 ;
336 [label="Husbands_occupation_3 <= 0.5\nentropy = 0.837\nsamples = 15\nvalue = [0, 11, 4]\nclass = 1", fillcolor="#81eeaf"] ;
334 -> 336 ;
337 [label="entropy = 0.544\nsamples = 8\nvalue = [0, 7, 1]\nclass = 1", fillcolor="#55e993"] ;
336 -> 337 ;
338 [label="entropy = 0.985\nsamples = 7\nvalue = [0, 4, 3]\nclass = 1", fillcolor="#cef8e0"] ;
336 -> 338 ;
339 [label="entropy = 0.991\nsamples = 9\nvalue = [0, 4, 5]\nclass = 2", fillcolor="#e6d7fa"] ;
333 -> 339 ;
340 [label="entropy = 0.0\nsamples = 2\nvalue = [0, 0, 2]\nclass = 2", fillcolor="#8139e5"] ;
326 -> 340 ;
341 [label="Number_of_children_ever_born <= 3.5\nentropy = 1.191\nsamples = 43\nvalue = [4, 29, 10]\nclass = 1", fillcolor="#8df0b6"] ;
325 -> 341 ;
342 [label="Husbands_occupation_3 <= 0.5\nentropy = 1.379\nsamples = 14\nvalue = [4, 8, 2]\nclass = 1", fillcolor="#b0f5cd"] ;
341 -> 342 ;
343 [label="Wifes_age <= 41.5\nentropy = 1.252\nsamples = 12\nvalue = [2, 8, 2]\nclass = 1", fillcolor="#88efb3"] ;
342 -> 343 ;
344 [label="entropy = 0.544\nsamples = 8\nvalue = [0, 7, 1]\nclass = 1", fillcolor="#55e993"] ;
343 -> 344 ;
345 [label="entropy = 1.5\nsamples = 4\nvalue = [2, 1, 1]\nclass = 0", fillcolor="#f6d5bd"] ;
343 -> 345 ;
346 [label="entropy = 0.0\nsamples = 2\nvalue = [2, 0, 0]\nclass = 0", fillcolor="#e58139"] ;
342 -> 346 ;
347 [label="Wifes_religion <= 0.5\nentropy = 0.85\nsamples = 29\nvalue = [0, 21, 8]\nclass = 1", fillcolor="#84efb1"] ;
341 -> 347 ;
348 [label="entropy = 0.0\nsamples = 8\nvalue = [0, 8, 0]\nclass = 1", fillcolor="#39e581"] ;
347 -> 348 ;
349 [label="Standard-of-living_index <= 3.5\nentropy = 0.959\nsamples = 21\nvalue = [0, 13, 8]\nclass = 1", fillcolor="#b3f5cf"] ;
347 -> 349 ;
350 [label="entropy = 0.0\nsamples = 3\nvalue = [0, 3, 0]\nclass = 1", fillcolor="#39e581"] ;
349 -> 350 ;
351 [label="Number_of_children_ever_born <= 4.5\nentropy = 0.991\nsamples = 18\nvalue = [0, 10, 8]\nclass = 1", fillcolor="#d7fae6"] ;
349 -> 351 ;
352 [label="entropy = 0.863\nsamples = 7\nvalue = [0, 5, 2]\nclass = 1", fillcolor="#88efb3"] ;
351 -> 352 ;
353 [label="Number_of_children_ever_born <= 5.5\nentropy = 0.994\nsamples = 11\nvalue = [0, 5, 6]\nclass = 2", fillcolor="#eadefb"] ;
351 -> 353 ;
354 [label="entropy = 0.722\nsamples = 5\nvalue = [0, 1, 4]\nclass = 2", fillcolor="#a06aec"] ;
353 -> 354 ;
355 [label="entropy = 0.918\nsamples = 6\nvalue = [0, 4, 2]\nclass = 1", fillcolor="#9cf2c0"] ;
353 -> 355 ;
356 [label="Number_of_children_ever_born <= 10.5\nentropy = 1.552\nsamples = 60\nvalue = [18, 26, 16]\nclass = 1", fillcolor="#d9fae7"] ;
306 -> 356 ;
357 [label="Number_of_children_ever_born <= 5.5\nentropy = 1.528\nsamples = 57\nvalue = [18, 26, 13]\nclass = 1", fillcolor="#d6fae5"] ;
356 -> 357 ;
358 [label="Wifes_age <= 47.5\nentropy = 1.583\nsamples = 42\nvalue = [14, 15, 13]\nclass = 1", fillcolor="#f8fefa"] ;
357 -> 358 ;
359 [label="Standard-of-living_index <= 3.5\nentropy = 1.561\nsamples = 36\nvalue = [9, 14, 13]\nclass = 1", fillcolor="#f6fefa"] ;
358 -> 359 ;
360 [label="entropy = 0.918\nsamples = 6\nvalue = [2, 0, 4]\nclass = 2", fillcolor="#c09cf2"] ;
359 -> 360 ;
361 [label="Husbands_occupation_2 <= 0.5\nentropy = 1.524\nsamples = 30\nvalue = [7, 14, 9]\nclass = 1", fillcolor="#d0f9e1"] ;
359 -> 361 ;
362 [label="Wifes_age <= 46.5\nentropy = 1.445\nsamples = 26\nvalue = [4, 13, 9]\nclass = 1", fillcolor="#d0f9e1"] ;
361 -> 362 ;
363 [label="Wifes_age <= 43.5\nentropy = 1.326\nsamples = 23\nvalue = [2, 12, 9]\nclass = 1", fillcolor="#d5f9e4"] ;
362 -> 363 ;
364 [label="entropy = 1.252\nsamples = 6\nvalue = [1, 1, 4]\nclass = 2", fillcolor="#b388ef"] ;
363 -> 364 ;
365 [label="Wifes_now_working%3F <= 0.5\nentropy = 1.166\nsamples = 17\nvalue = [1, 11, 5]\nclass = 1", fillcolor="#9cf2c0"] ;
363 -> 365 ;
366 [label="entropy = 1.5\nsamples = 4\nvalue = [1, 2, 1]\nclass = 1", fillcolor="#bdf6d5"] ;
365 -> 366 ;
367 [label="entropy = 0.89\nsamples = 13\nvalue = [0, 9, 4]\nclass = 1", fillcolor="#91f1b9"] ;
365 -> 367 ;
368 [label="entropy = 0.918\nsamples = 3\nvalue = [2, 1, 0]\nclass = 0", fillcolor="#f2c09c"] ;
362 -> 368 ;
369 [label="entropy = 0.811\nsamples = 4\nvalue = [3, 1, 0]\nclass = 0", fillcolor="#eeab7b"] ;
361 -> 369 ;
370 [label="entropy = 0.65\nsamples = 6\nvalue = [5, 1, 0]\nclass = 0", fillcolor="#ea9a61"] ;
358 -> 370 ;
371 [label="Standard-of-living_index <= 3.5\nentropy = 0.837\nsamples = 15\nvalue = [4, 11, 0]\nclass = 1", fillcolor="#81eeaf"] ;
357 -> 371 ;
372 [label="entropy = 0.811\nsamples = 4\nvalue = [3, 1, 0]\nclass = 0", fillcolor="#eeab7b"] ;
371 -> 372 ;
373 [label="Wifes_age <= 48.5\nentropy = 0.439\nsamples = 11\nvalue = [1, 10, 0]\nclass = 1", fillcolor="#4de88e"] ;
371 -> 373 ;
374 [label="entropy = 0.0\nsamples = 9\nvalue = [0, 9, 0]\nclass = 1", fillcolor="#39e581"] ;
373 -> 374 ;
375 [label="entropy = 1.0\nsamples = 2\nvalue = [1, 1, 0]\nclass = 0", fillcolor="#ffffff"] ;
373 -> 375 ;
376 [label="entropy = 0.0\nsamples = 3\nvalue = [0, 0, 3]\nclass = 2", fillcolor="#8139e5"] ;
356 -> 376 ;
}